Language model created by QuickLM on Sun Jan  8 14:03:46 EST 2023
Copyright (c) 1996-2010 Carnegie Mellon University and Alexander I. Rudnicky

The model is in standard ARPA format, designed by Doug Paul while he was at MITRE.

The code that was used to produce this language model is available in Open Source.
Please visit http://www.speech.cs.cmu.edu/tools/ for more information

The (fixed) discount mass is 0.5. The backoffs are computed using the ratio method.
This model based on a corpus of 63 sentences and 65 words

\data\
ngram 1=62
ngram 2=120
ngram 3=60

\1-grams:
-0.7782 </s> -0.3010
-0.7782 <s> -0.2218
-2.5775 ANANAS -0.2218
-2.5775 ANANASH -0.2218
-2.5775 ANANATH -0.2218
-2.5775 ASAD -0.2218
-2.5775 ASHAD -0.2218
-2.5775 ATHAD -0.2218
-2.5775 KURSHI -0.2218
-2.5775 KURSI -0.2218
-2.5775 KURTHI -0.2218
-2.5775 KUSA -0.2218
-2.5775 KUSHA -0.2218
-2.5775 KUTHA -0.2218
-2.5775 LBAS -0.2218
-2.5775 LBASH -0.2218
-2.5775 LBATH -0.2218
-2.5775 MADRASA -0.2218
-2.5775 MADRASHA -0.2218
-2.5775 MADRATHA -0.2218
-2.5775 MAKNASA -0.2218
-2.5775 MAKNASHA -0.2218
-2.5775 MAKNATHA -0.2218
-2.5775 MASHJID -0.2218
-2.5775 MASJID -0.2218
-2.5775 MATHJID -0.2218
-2.5775 MISHMAR -0.2218
-2.5775 MISHWAK -0.2218
-2.5775 MISMAR -0.2218
-2.5775 MISWAK -0.2218
-2.5775 MITHMAR -0.2218
-2.5775 MITHWAK -0.2218
-2.5775 NAMOS -0.2218
-2.5775 NAMOSH -0.2218
-2.5775 NAMUOTH -0.2218
-2.5775 QAMOS -0.2218
-2.5775 QAMOSH -0.2218
-2.5775 QAMOTH -0.2218
-2.5775 QUNDUS -0.2218
-2.5775 QUNDUSH -0.2218
-2.5775 QUNDUSTH -0.2218
-2.5775 SAMAKA -0.2218
-2.5775 SAYAARA -0.2218
-2.5775 SAYF -0.2218
-2.5775 SENJAB -0.2218
-2.5775 SHAMAKA -0.2218
-2.5775 SHAMSH -0.2218
-2.5775 SHAMS‏ -0.2218
-2.5775 SHAMTH‏ -0.2218
-2.5775 SHAYAARA -0.2218
-2.5775 SHAYF -0.2218
-2.5775 SHENJAB -0.2218
-2.5775 SHIFINA -0.2218
-2.5775 SHIN -0.2218
-2.5775 SIFINA -0.2218
-2.5775 SIN -0.2218
-2.5775 THAMAKA -0.2218
-2.5775 THAYAARA -0.2218
-2.5775 THAYF -0.2218
-2.5775 THENJAB -0.2218
-2.5775 THIFINA -0.2218
-2.5775 THIN -0.2218

\2-grams:
-2.1004 <s> ANANAS 0.0000
-2.1004 <s> ANANASH 0.0000
-2.1004 <s> ANANATH 0.0000
-2.1004 <s> ASAD 0.0000
-2.1004 <s> ASHAD 0.0000
-2.1004 <s> ATHAD 0.0000
-2.1004 <s> KURSHI 0.0000
-2.1004 <s> KURSI 0.0000
-2.1004 <s> KURTHI 0.0000
-2.1004 <s> KUSA 0.0000
-2.1004 <s> KUSHA 0.0000
-2.1004 <s> KUTHA 0.0000
-2.1004 <s> LBAS 0.0000
-2.1004 <s> LBASH 0.0000
-2.1004 <s> LBATH 0.0000
-2.1004 <s> MADRASA 0.0000
-2.1004 <s> MADRASHA 0.0000
-2.1004 <s> MADRATHA 0.0000
-2.1004 <s> MAKNASA 0.0000
-2.1004 <s> MAKNASHA 0.0000
-2.1004 <s> MAKNATHA 0.0000
-2.1004 <s> MASHJID 0.0000
-2.1004 <s> MASJID 0.0000
-2.1004 <s> MATHJID 0.0000
-2.1004 <s> MISHMAR 0.0000
-2.1004 <s> MISHWAK 0.0000
-2.1004 <s> MISMAR 0.0000
-2.1004 <s> MISWAK 0.0000
-2.1004 <s> MITHMAR 0.0000
-2.1004 <s> MITHWAK 0.0000
-2.1004 <s> NAMOS 0.0000
-2.1004 <s> NAMOSH 0.0000
-2.1004 <s> NAMUOTH 0.0000
-2.1004 <s> QAMOS 0.0000
-2.1004 <s> QAMOSH 0.0000
-2.1004 <s> QAMOTH 0.0000
-2.1004 <s> QUNDUS 0.0000
-2.1004 <s> QUNDUSH 0.0000
-2.1004 <s> QUNDUSTH 0.0000
-2.1004 <s> SAMAKA 0.0000
-2.1004 <s> SAYAARA 0.0000
-2.1004 <s> SAYF 0.0000
-2.1004 <s> SENJAB 0.0000
-2.1004 <s> SHAMAKA 0.0000
-2.1004 <s> SHAMSH 0.0000
-2.1004 <s> SHAMS‏ 0.0000
-2.1004 <s> SHAMTH‏ 0.0000
-2.1004 <s> SHAYAARA 0.0000
-2.1004 <s> SHAYF 0.0000
-2.1004 <s> SHENJAB 0.0000
-2.1004 <s> SHIFINA 0.0000
-2.1004 <s> SHIN 0.0000
-2.1004 <s> SIFINA 0.0000
-2.1004 <s> SIN 0.0000
-2.1004 <s> THAMAKA 0.0000
-2.1004 <s> THAYAARA 0.0000
-2.1004 <s> THAYF 0.0000
-2.1004 <s> THENJAB 0.0000
-2.1004 <s> THIFINA 0.0000
-2.1004 <s> THIN 0.0000
-0.3010 ANANAS </s> -0.3010
-0.3010 ANANASH </s> -0.3010
-0.3010 ANANATH </s> -0.3010
-0.3010 ASAD </s> -0.3010
-0.3010 ASHAD </s> -0.3010
-0.3010 ATHAD </s> -0.3010
-0.3010 KURSHI </s> -0.3010
-0.3010 KURSI </s> -0.3010
-0.3010 KURTHI </s> -0.3010
-0.3010 KUSA </s> -0.3010
-0.3010 KUSHA </s> -0.3010
-0.3010 KUTHA </s> -0.3010
-0.3010 LBAS </s> -0.3010
-0.3010 LBASH </s> -0.3010
-0.3010 LBATH </s> -0.3010
-0.3010 MADRASA </s> -0.3010
-0.3010 MADRASHA </s> -0.3010
-0.3010 MADRATHA </s> -0.3010
-0.3010 MAKNASA </s> -0.3010
-0.3010 MAKNASHA </s> -0.3010
-0.3010 MAKNATHA </s> -0.3010
-0.3010 MASHJID </s> -0.3010
-0.3010 MASJID </s> -0.3010
-0.3010 MATHJID </s> -0.3010
-0.3010 MISHMAR </s> -0.3010
-0.3010 MISHWAK </s> -0.3010
-0.3010 MISMAR </s> -0.3010
-0.3010 MISWAK </s> -0.3010
-0.3010 MITHMAR </s> -0.3010
-0.3010 MITHWAK </s> -0.3010
-0.3010 NAMOS </s> -0.3010
-0.3010 NAMOSH </s> -0.3010
-0.3010 NAMUOTH </s> -0.3010
-0.3010 QAMOS </s> -0.3010
-0.3010 QAMOSH </s> -0.3010
-0.3010 QAMOTH </s> -0.3010
-0.3010 QUNDUS </s> -0.3010
-0.3010 QUNDUSH </s> -0.3010
-0.3010 QUNDUSTH </s> -0.3010
-0.3010 SAMAKA </s> -0.3010
-0.3010 SAYAARA </s> -0.3010
-0.3010 SAYF </s> -0.3010
-0.3010 SENJAB </s> -0.3010
-0.3010 SHAMAKA </s> -0.3010
-0.3010 SHAMSH </s> -0.3010
-0.3010 SHAMS‏ </s> -0.3010
-0.3010 SHAMTH‏ </s> -0.3010
-0.3010 SHAYAARA </s> -0.3010
-0.3010 SHAYF </s> -0.3010
-0.3010 SHENJAB </s> -0.3010
-0.3010 SHIFINA </s> -0.3010
-0.3010 SHIN </s> -0.3010
-0.3010 SIFINA </s> -0.3010
-0.3010 SIN </s> -0.3010
-0.3010 THAMAKA </s> -0.3010
-0.3010 THAYAARA </s> -0.3010
-0.3010 THAYF </s> -0.3010
-0.3010 THENJAB </s> -0.3010
-0.3010 THIFINA </s> -0.3010
-0.3010 THIN </s> -0.3010

\3-grams:
-0.3010 <s> ANANAS </s>
-0.3010 <s> ANANASH </s>
-0.3010 <s> ANANATH </s>
-0.3010 <s> ASAD </s>
-0.3010 <s> ASHAD </s>
-0.3010 <s> ATHAD </s>
-0.3010 <s> KURSHI </s>
-0.3010 <s> KURSI </s>
-0.3010 <s> KURTHI </s>
-0.3010 <s> KUSA </s>
-0.3010 <s> KUSHA </s>
-0.3010 <s> KUTHA </s>
-0.3010 <s> LBAS </s>
-0.3010 <s> LBASH </s>
-0.3010 <s> LBATH </s>
-0.3010 <s> MADRASA </s>
-0.3010 <s> MADRASHA </s>
-0.3010 <s> MADRATHA </s>
-0.3010 <s> MAKNASA </s>
-0.3010 <s> MAKNASHA </s>
-0.3010 <s> MAKNATHA </s>
-0.3010 <s> MASHJID </s>
-0.3010 <s> MASJID </s>
-0.3010 <s> MATHJID </s>
-0.3010 <s> MISHMAR </s>
-0.3010 <s> MISHWAK </s>
-0.3010 <s> MISMAR </s>
-0.3010 <s> MISWAK </s>
-0.3010 <s> MITHMAR </s>
-0.3010 <s> MITHWAK </s>
-0.3010 <s> NAMOS </s>
-0.3010 <s> NAMOSH </s>
-0.3010 <s> NAMUOTH </s>
-0.3010 <s> QAMOS </s>
-0.3010 <s> QAMOSH </s>
-0.3010 <s> QAMOTH </s>
-0.3010 <s> QUNDUS </s>
-0.3010 <s> QUNDUSH </s>
-0.3010 <s> QUNDUSTH </s>
-0.3010 <s> SAMAKA </s>
-0.3010 <s> SAYAARA </s>
-0.3010 <s> SAYF </s>
-0.3010 <s> SENJAB </s>
-0.3010 <s> SHAMAKA </s>
-0.3010 <s> SHAMSH </s>
-0.3010 <s> SHAMS‏ </s>
-0.3010 <s> SHAMTH‏ </s>
-0.3010 <s> SHAYAARA </s>
-0.3010 <s> SHAYF </s>
-0.3010 <s> SHENJAB </s>
-0.3010 <s> SHIFINA </s>
-0.3010 <s> SHIN </s>
-0.3010 <s> SIFINA </s>
-0.3010 <s> SIN </s>
-0.3010 <s> THAMAKA </s>
-0.3010 <s> THAYAARA </s>
-0.3010 <s> THAYF </s>
-0.3010 <s> THENJAB </s>
-0.3010 <s> THIFINA </s>
-0.3010 <s> THIN </s>

\end\
